digraph Tree {
node [shape=box, fontname="helvetica"] ;
edge [fontname="helvetica"] ;
0 [label="x[2] <= 2.45\nentropy = 1.58\nsamples = 105\nvalue = [31, 37, 37]"] ;
1 [label="entropy = 0.0\nsamples = 31\nvalue = [31, 0, 0]"] ;
0 -> 1 [labeldistance=2.5, labelangle=45, headlabel="True"] ;
2 [label="x[2] <= 4.75\nentropy = 1.0\nsamples = 74\nvalue = [0, 37, 37]"] ;
0 -> 2 [labeldistance=2.5, labelangle=-45, headlabel="False"] ;
3 [label="x[3] <= 1.6\nentropy = 0.196\nsamples = 33\nvalue = [0, 32, 1]"] ;
2 -> 3 ;
4 [label="entropy = 0.0\nsamples = 32\nvalue = [0, 32, 0]"] ;
3 -> 4 ;
5 [label="entropy = 0.0\nsamples = 1\nvalue = [0, 0, 1]"] ;
3 -> 5 ;
6 [label="x[2] <= 5.15\nentropy = 0.535\nsamples = 41\nvalue = [0, 5, 36]"] ;
2 -> 6 ;
7 [label="x[3] <= 1.75\nentropy = 0.918\nsamples = 15\nvalue = [0, 5, 10]"] ;
6 -> 7 ;
8 [label="x[1] <= 2.35\nentropy = 0.918\nsamples = 6\nvalue = [0, 4, 2]"] ;
7 -> 8 ;
9 [label="entropy = 0.0\nsamples = 1\nvalue = [0, 0, 1]"] ;
8 -> 9 ;
10 [label="x[2] <= 5.05\nentropy = 0.722\nsamples = 5\nvalue = [0, 4, 1]"] ;
8 -> 10 ;
11 [label="entropy = 0.0\nsamples = 3\nvalue = [0, 3, 0]"] ;
10 -> 11 ;
12 [label="x[0] <= 6.15\nentropy = 1.0\nsamples = 2\nvalue = [0, 1, 1]"] ;
10 -> 12 ;
13 [label="entropy = 0.0\nsamples = 1\nvalue = [0, 1, 0]"] ;
12 -> 13 ;
14 [label="entropy = 0.0\nsamples = 1\nvalue = [0, 0, 1]"] ;
12 -> 14 ;
15 [label="x[1] <= 3.1\nentropy = 0.503\nsamples = 9\nvalue = [0, 1, 8]"] ;
7 -> 15 ;
16 [label="entropy = 0.0\nsamples = 8\nvalue = [0, 0, 8]"] ;
15 -> 16 ;
17 [label="entropy = 0.0\nsamples = 1\nvalue = [0, 1, 0]"] ;
15 -> 17 ;
18 [label="entropy = 0.0\nsamples = 26\nvalue = [0, 0, 26]"] ;
6 -> 18 ;
}